svm_type epsilon_svr
kernel_type rbf
gamma 0.01
nr_class 2
total_sv 15
rho 0.737768
SV
-423.9454421880022 1:0.697 2:0.46 
600 1:0.744 2:0.376 
600 1:0.634 2:0.264 
600 1:0.608 2:0.318 
600 1:0.556 2:0.215 
600 1:0.403 2:0.237 
600 1:0.481 2:0.149 
600 1:0.437 2:0.211 
-562.6834232567169 1:0.666 2:0.091 
-600 1:0.243 2:0.267 
-213.3711345552811 1:0.343 2:0.099 
-600 1:0.639 2:0.161 
-600 1:0.657 2:0.198 
-600 1:0.36 2:0.37 
-600 1:0.719 2:0.103 
